<?xml version="1.0"?>
<opencv_storage>
<cascade>
  <stageType>BOOST</stageType>
  <featureType>HAAR</featureType>
  <height>24</height>
  <width>24</width>
  <stageParams>
    <boostType>GAB</boostType>
    <minHitRate>9.9500000476837158e-01</minHitRate>
    <maxFalseAlarm>5.0000000000000000e-01</maxFalseAlarm>
    <weightTrimRate>9.4999998807907104e-01</weightTrimRate>
    <maxDepth>1</maxDepth>
    <maxWeakCount>100</maxWeakCount></stageParams>
  <featureParams>
    <maxCatCount>0</maxCatCount>
    <featSize>1</featSize>
    <mode>BASIC</mode></featureParams>
  <stageNum>11</stageNum>
  <stages>
    <!-- stage 0 -->
    <_>
      <maxWeakCount>9</maxWeakCount>
      <stageThreshold>-1.0920580625534058e+00</stageThreshold>
      <weakClassifiers>
        <_>
          <internalNodes>
            0 -1 29 -1.6135817393660545e-02</internalNodes>
          <leafValues>
            7.1822357177734375e-01 -6.4574170112609863e-01</leafValues></_>
        <_>
          <internalNodes>
            0 -1 135 -1.2572815641760826e-02</internalNodes>
          <leafValues>
            8.7178921699523926e-01 -3.6707574129104614e-01</leafValues></_>
        <_>
          <internalNodes>
            0 -1 42 9.7577475011348724e-02</internalNodes>
          <leafValues>
            -3.1485676765441895e-01 7.1587121486663818e-01</leafValues></_>
        <_>
          <internalNodes>
            0 -1 100 1.1332327499985695e-02</internalNodes>
          <leafValues>
            -1.8870900571346283e-01 8.7605249881744385e-01</leafValues></_>
        <_>
          <internalNodes>
            0 -1 102 -6.9386586546897888e-03</internalNodes>
          <leafValues>
            8.0505639314651489e-01 -2.2826600074768066e-01</leafValues></_>
        <_>
          <internalNodes>
            0 -1 1 1.2738863937556744e-02</internalNodes>
          <leafValues>
            -1.6505205631256104e-01 8.2741117477416992e-01</leafValues></_>
        <_>
          <internalNodes>
            0 -1 6 -1.1832621879875660e-02</internalNodes>
          <leafValues>
            8.3635628223419189e-01 -2.1113115549087524e-01</leafValues></_>
        <_>
          <internalNodes>
            0 -1 22 -1.9312131917104125e-04</internalNodes>
          <leafValues>
            -6.8924033641815186e-01 3.0112516880035400e-01</leafValues></_>
        <_>
          <internalNodes>
            0 -1 56 5.2397098392248154e-02</internalNodes>
          <leafValues>
            -2.5050228834152222e-01 7.2764921188354492e-01</leafValues></_></weakClassifiers></_>
    <!-- stage 1 -->
    <_>
      <maxWeakCount>9</maxWeakCount>
      <stageThreshold>-1.2885153293609619e+00</stageThreshold>
      <weakClassifiers>
        <_>
          <internalNodes>
            0 -1 13 1.4712215401232243e-02</internalNodes>
          <leafValues>
            -5.9402525424957275e-01 7.4585634469985962e-01</leafValues></_>
        <_>
          <internalNodes>
            0 -1 4 -7.8482646495103836e-03</internalNodes>
          <leafValues>
            7.6652055978775024e-01 -2.9178798198699951e-01</leafValues></_>
        <_>
          <internalNodes>
            0 -1 27 1.0101895779371262e-02</internalNodes>
          <leafValues>
            -2.2148093581199646e-01 7.3837208747863770e-01</leafValues></_>
        <_>
          <internalNodes>
            0 -1 78 -9.7315106540918350e-03</internalNodes>
          <leafValues>
            5.7953792810440063e-01 -2.7793228626251221e-01</leafValues></_>
        <_>
          <internalNodes>
            0 -1 20 -5.0629698671400547e-04</internalNodes>
          <leafValues>
            -7.9426109790802002e-01 2.1067008376121521e-01</leafValues></_>
        <_>
          <internalNodes>
            0 -1 97 -8.9757964015007019e-03</internalNodes>
          <leafValues>
            7.3612970113754272e-01 -2.1450634300708771e-01</leafValues></_>
        <_>
          <internalNodes>
            0 -1 87 4.4270749203860760e-03</internalNodes>
          <leafValues>
            -1.9167913496494293e-01 7.5332683324813843e-01</leafValues></_>
        <_>
          <internalNodes>
            0 -1 41 5.3585160523653030e-02</internalNodes>
          <leafValues>
            -2.8828307986259460e-01 5.1750624179840088e-01</leafValues></_>
        <_>
          <internalNodes>
            0 -1 79 3.9203730411827564e-03</internalNodes>
          <leafValues>
            -2.2266544401645660e-01 5.9611636400222778e-01</leafValues></_></weakClassifiers></_>
    <!-- stage 2 -->
    <_>
      <maxWeakCount>9</maxWeakCount>
      <stageThreshold>-1.1528149843215942e+00</stageThreshold>
      <weakClassifiers>
        <_>
          <internalNodes>
            0 -1 37 1.4803405106067657e-01</internalNodes>
          <leafValues>
            -6.0109078884124756e-01 6.7632025480270386e-01</leafValues></_>
        <_>
          <internalNodes>
            0 -1 125 2.3751506581902504e-02</internalNodes>
          <leafValues>
            -2.5641915202140808e-01 7.0136791467666626e-01</leafValues></_>
        <_>
          <internalNodes>
            0 -1 16 -2.4053700326476246e-04</internalNodes>
          <leafValues>
            -6.1805498600006104e-01 2.2779218852519989e-01</leafValues></_>
        <_>
          <internalNodes>
            0 -1 144 -3.3366266870871186e-04</internalNodes>
          <leafValues>
            -7.0599842071533203e-01 1.8807025253772736e-01</leafValues></_>
        <_>
          <internalNodes>
            0 -1 145 -3.0593015253543854e-04</internalNodes>
          <leafValues>
            -7.4179482460021973e-01 2.3534141480922699e-01</leafValues></_>
        <_>
          <internalNodes>
            0 -1 55 1.0711150243878365e-02</internalNodes>
          <leafValues>
            -2.2717000544071198e-01 7.0299059152603149e-01</leafValues></_>
        <_>
          <internalNodes>
            0 -1 143 3.0397067894227803e-04</internalNodes>
          <leafValues>
            2.6789879798889160e-01 -6.4873039722442627e-01</leafValues></_>
        <_>
          <internalNodes>
            0 -1 127 -9.7868572920560837e-03</internalNodes>
          <leafValues>
            7.5129586458206177e-01 -2.4070125818252563e-01</leafValues></_>
        <_>
          <internalNodes>
            0 -1 65 -4.2891115881502628e-03</internalNodes>
          <leafValues>
            -6.9211941957473755e-01 2.3059976100921631e-01</leafValues></_></weakClassifiers></_>
    <!-- stage 3 -->
    <_>
      <maxWeakCount>13</maxWeakCount>
      <stageThreshold>-1.4477779865264893e+00</stageThreshold>
      <weakClassifiers>
        <_>
          <internalNodes>
            0 -1 24 9.7642347216606140e-02</internalNodes>
          <leafValues>
            -6.5422224998474121e-01 3.6061945557594299e-01</leafValues></_>
        <_>
          <internalNodes>
            0 -1 7 -1.1385821737349033e-02</internalNodes>
          <leafValues>
            4.5106595754623413e-01 -3.7874388694763184e-01</leafValues></_>
        <_>
          <internalNodes>
            0 -1 134 -1.6132012009620667e-02</internalNodes>
          <leafValues>
            6.0912537574768066e-01 -2.2973215579986572e-01</leafValues></_>
        <_>
          <internalNodes>
            0 -1 16 3.2252498203888535e-04</internalNodes>
          <leafValues>
            1.9273461401462555e-01 -6.1080741882324219e-01</leafValues></_>
        <_>
          <internalNodes>
            0 -1 90 -3.5085722804069519e-02</internalNodes>
          <leafValues>
            3.4848627448081970e-01 -3.3302739262580872e-01</leafValues></_>
        <_>
          <internalNodes>
            0 -1 101 1.6144126653671265e-02</internalNodes>
          <leafValues>
            -1.7276053130626678e-01 6.4475482702255249e-01</leafValues></_>
        <_>
          <internalNodes>
            0 -1 103 -5.9368684887886047e-03</internalNodes>
          <leafValues>
            5.2501970529556274e-01 -2.3492400348186493e-01</leafValues></_>
        <_>
          <internalNodes>
            0 -1 57 -3.7380944937467575e-02</internalNodes>
          <leafValues>
            6.5602535009384155e-01 -1.5560264885425568e-01</leafValues></_>
        <_>
          <internalNodes>
            0 -1 59 -1.5471931546926498e-03</internalNodes>
          <leafValues>
            -8.0921930074691772e-01 1.4942999184131622e-01</leafValues></_>
        <_>
          <internalNodes>
            0 -1 58 3.3444616943597794e-02</internalNodes>
          <leafValues>
            -1.5806904435157776e-01 6.7463093996047974e-01</leafValues></_>
        <_>
          <internalNodes>
            0 -1 69 3.8891772273927927e-03</internalNodes>
          <leafValues>
            1.3053140044212341e-01 -8.1205445528030396e-01</leafValues></_>
        <_>
          <internalNodes>
            0 -1 54 8.2714837044477463e-03</internalNodes>
          <leafValues>
            -2.1126955747604370e-01 5.2619731426239014e-01</leafValues></_>
        <_>
          <internalNodes>
            0 -1 59 1.4548759208992124e-03</internalNodes>
          <leafValues>
            1.8027372658252716e-01 -6.8949377536773682e-01</leafValues></_></weakClassifiers></_>
    <!-- stage 4 -->
    <_>
      <maxWeakCount>13</maxWeakCount>
      <stageThreshold>-1.6077142953872681e+00</stageThreshold>
      <weakClassifiers>
        <_>
          <internalNodes>
            0 -1 9 2.3316437378525734e-02</internalNodes>
          <leafValues>
            -5.5358517169952393e-01 5.1785713434219360e-01</leafValues></_>
        <_>
          <internalNodes>
            0 -1 36 1.2922880053520203e-01</internalNodes>
          <leafValues>
            -2.9425233602523804e-01 5.3359997272491455e-01</leafValues></_>
        <_>
          <internalNodes>
            0 -1 121 1.4988956972956657e-02</internalNodes>
          <leafValues>
            -2.7693313360214233e-01 5.0993835926055908e-01</leafValues></_>
        <_>
          <internalNodes>
            0 -1 74 1.3591796159744263e-02</internalNodes>
          <leafValues>
            -1.2738239765167236e-01 7.1075773239135742e-01</leafValues></_>
        <_>
          <internalNodes>
            0 -1 28 9.7446274012327194e-03</internalNodes>
          <leafValues>
            -1.7823210358619690e-01 5.9330546855926514e-01</leafValues></_>
        <_>
          <internalNodes>
            0 -1 12 -6.0893560294061899e-04</internalNodes>
          <leafValues>
            -7.5507497787475586e-01 1.8475593626499176e-01</leafValues></_>
        <_>
          <internalNodes>
            0 -1 12 3.5724582266993821e-04</internalNodes>
          <leafValues>
            1.8796345591545105e-01 -7.0638597011566162e-01</leafValues></_>
        <_>
          <internalNodes>
            0 -1 136 -2.0850373432040215e-02</internalNodes>
          <leafValues>
            7.0835554599761963e-01 -1.7060546576976776e-01</leafValues></_>
        <_>
          <internalNodes>
            0 -1 142 4.8482051352038980e-04</internalNodes>
          <leafValues>
            1.6030266880989075e-01 -7.1752429008483887e-01</leafValues></_>
        <_>
          <internalNodes>
            0 -1 91 -8.0292308703064919e-03</internalNodes>
          <leafValues>
            5.3400588035583496e-01 -2.1169392764568329e-01</leafValues></_>
        <_>
          <internalNodes>
            0 -1 3 1.6534984111785889e-02</internalNodes>
          <leafValues>
            -2.6298159360885620e-01 3.5864660143852234e-01</leafValues></_>
        <_>
          <internalNodes>
            0 -1 98 -4.0061110630631447e-03</internalNodes>
          <leafValues>
            5.1053929328918457e-01 -1.9814515113830566e-01</leafValues></_>
        <_>
          <internalNodes>
            0 -1 93 2.1074623800814152e-03</internalNodes>
          <leafValues>
            1.3307502865791321e-01 -8.6128914356231689e-01</leafValues></_></weakClassifiers></_>
    <!-- stage 5 -->
    <_>
      <maxWeakCount>14</maxWeakCount>
      <stageThreshold>-1.5375070571899414e+00</stageThreshold>
      <weakClassifiers>
        <_>
          <internalNodes>
            0 -1 129 1.2379025109112263e-02</internalNodes>
          <leafValues>
            -5.2588146924972534e-01 5.2459013462066650e-01</leafValues></_>
        <_>
          <internalNodes>
            0 -1 17 9.5449825748801231e-03</internalNodes>
          <leafValues>
            -3.5079005360603333e-01 4.2958286404609680e-01</leafValues></_>
        <_>
          <internalNodes>
            0 -1 128 -5.8242864906787872e-03</internalNodes>
          <leafValues>
            6.7002260684967041e-01 -2.4519231915473938e-01</leafValues></_>
        <_>
          <internalNodes>
            0 -1 139 -1.6457802848890424e-03</internalNodes>
          <leafValues>
            -4.9666458368301392e-01 2.7794414758682251e-01</leafValues></_>
        <_>
          <internalNodes>
            0 -1 88 -6.0068750753998756e-03</internalNodes>
          <leafValues>
            6.2998616695404053e-01 -1.9268675148487091e-01</leafValues></_>
        <_>
          <internalNodes>
            0 -1 94 4.3672141619026661e-03</internalNodes>
          <leafValues>
            2.2466780245304108e-01 -7.0454376935958862e-01</leafValues></_>
        <_>
          <internalNodes>
            0 -1 5 1.7730897292494774e-02</internalNodes>
          <leafValues>
            -2.8667017817497253e-01 5.2044618129730225e-01</leafValues></_>
        <_>
          <internalNodes>
            0 -1 95 -3.7133505102247000e-03</internalNodes>
          <leafValues>
            -7.4532836675643921e-01 1.6120752692222595e-01</leafValues></_>
        <_>
          <internalNodes>
            0 -1 109 -2.8764631133526564e-03</internalNodes>
          <leafValues>
            3.8330596685409546e-01 -2.8632482886314392e-01</leafValues></_>
        <_>
          <internalNodes>
            0 -1 10 -3.6669755354523659e-04</internalNodes>
          <leafValues>
            -6.9579368829727173e-01 1.3587144017219543e-01</leafValues></_>
        <_>
          <internalNodes>
            0 -1 86 5.5397078394889832e-03</internalNodes>
          <leafValues>
            -1.9295337796211243e-01 5.7647454738616943e-01</leafValues></_>
        <_>
          <internalNodes>
            0 -1 10 4.6063371701166034e-04</internalNodes>
          <leafValues>
            1.8195155262947083e-01 -6.4938795566558838e-01</leafValues></_>
        <_>
          <internalNodes>
            0 -1 81 -4.4212862849235535e-02</internalNodes>
          <leafValues>
            3.8871780037879944e-01 -2.8009283542633057e-01</leafValues></_>
        <_>
          <internalNodes>
            0 -1 15 -5.1990556530654430e-03</internalNodes>
          <leafValues>
            6.1756855249404907e-01 -1.5855769813060760e-01</leafValues></_></weakClassifiers></_>
    <!-- stage 6 -->
    <_>
      <maxWeakCount>17</maxWeakCount>
      <stageThreshold>-1.6906547546386719e+00</stageThreshold>
      <weakClassifiers>
        <_>
          <internalNodes>
            0 -1 46 1.8725592643022537e-02</internalNodes>
          <leafValues>
            -6.5287590026855469e-01 1.2627986073493958e-01</leafValues></_>
        <_>
          <internalNodes>
            0 -1 32 1.2131403386592865e-01</internalNodes>
          <leafValues>
            -3.1011345982551575e-01 5.2442789077758789e-01</leafValues></_>
        <_>
          <internalNodes>
            0 -1 45 3.3040572889149189e-03</internalNodes>
          <leafValues>
            -3.6930152773857117e-01 3.6066418886184692e-01</leafValues></_>
        <_>
          <internalNodes>
            0 -1 131 3.9103692397475243e-03</internalNodes>
          <leafValues>
            -2.4735151231288910e-01 4.7553929686546326e-01</leafValues></_>
        <_>
          <internalNodes>
            0 -1 130 -3.0015925876796246e-03</internalNodes>
          <leafValues>
            5.9210604429244995e-01 -1.8343715369701385e-01</leafValues></_>
        <_>
          <internalNodes>
            0 -1 148 -4.8759061610326171e-04</internalNodes>
          <leafValues>
            -6.6551643610000610e-01 2.2182223200798035e-01</leafValues></_>
        <_>
          <internalNodes>
            0 -1 148 4.1183747816830873e-04</internalNodes>
          <leafValues>
            1.0888896882534027e-01 -6.7343676090240479e-01</leafValues></_>
        <_>
          <internalNodes>
            0 -1 117 1.6001224517822266e-02</internalNodes>
          <leafValues>
            -2.4074348807334900e-01 4.5272842049598694e-01</leafValues></_>
        <_>
          <internalNodes>
            0 -1 53 -2.9794508591294289e-03</internalNodes>
          <leafValues>
            5.3798562288284302e-01 -1.3888168334960938e-01</leafValues></_>
        <_>
          <internalNodes>
            0 -1 61 -7.9442805144935846e-04</internalNodes>
          <leafValues>
            3.3811956644058228e-01 -3.0325374007225037e-01</leafValues></_>
        <_>
          <internalNodes>
            0 -1 141 4.4213249930180609e-04</internalNodes>
          <leafValues>
            1.5756751596927643e-01 -6.4687091112136841e-01</leafValues></_>
        <_>
          <internalNodes>
            0 -1 112 6.9982756394892931e-04</internalNodes>
          <leafValues>
            -3.1724247336387634e-01 2.5385129451751709e-01</leafValues></_>
        <_>
          <internalNodes>
            0 -1 96 -1.1614705435931683e-03</internalNodes>
          <leafValues>
            -8.8685643672943115e-01 7.6164059340953827e-02</leafValues></_>
        <_>
          <internalNodes>
            0 -1 50 -2.7320804074406624e-03</internalNodes>
          <leafValues>
            4.8319038748741150e-01 -1.7567875981330872e-01</leafValues></_>
        <_>
          <internalNodes>
            0 -1 84 -2.2428343072533607e-03</internalNodes>
          <leafValues>
            -7.4780350923538208e-01 1.1499297618865967e-01</leafValues></_>
        <_>
          <internalNodes>
            0 -1 52 -6.1409967020153999e-03</internalNodes>
          <leafValues>
            5.2057743072509766e-01 -1.6848963499069214e-01</leafValues></_>
        <_>
          <internalNodes>
            0 -1 18 7.0889492053538561e-04</internalNodes>
          <leafValues>
            9.5905557274818420e-02 -8.6246687173843384e-01</leafValues></_></weakClassifiers></_>
    <!-- stage 7 -->
    <_>
      <maxWeakCount>16</maxWeakCount>
      <stageThreshold>-1.6590386629104614e+00</stageThreshold>
      <weakClassifiers>
        <_>
          <internalNodes>
            0 -1 26 1.8826737999916077e-01</internalNodes>
          <leafValues>
            -5.6075155735015869e-01 2.5955203175544739e-01</leafValues></_>
        <_>
          <internalNodes>
            0 -1 123 -1.0440014302730560e-02</internalNodes>
          <leafValues>
            4.8036926984786987e-01 -3.0443757772445679e-01</leafValues></_>
        <_>
          <internalNodes>
            0 -1 8 1.2144545093178749e-02</internalNodes>
          <leafValues>
            -2.3609516024589539e-01 4.7975835204124451e-01</leafValues></_>
        <_>
          <internalNodes>
            0 -1 14 -1.5841718763113022e-02</internalNodes>
          <leafValues>
            4.0848541259765625e-01 -2.4819549918174744e-01</leafValues></_>
        <_>
          <internalNodes>
            0 -1 35 8.0179288983345032e-02</internalNodes>
          <leafValues>
            -1.8976107239723206e-01 4.8431196808815002e-01</leafValues></_>
        <_>
          <internalNodes>
            0 -1 39 6.7511543631553650e-02</internalNodes>
          <leafValues>
            -1.6257315874099731e-01 5.4798215627670288e-01</leafValues></_>
        <_>
          <internalNodes>
            0 -1 140 1.6916408203542233e-03</internalNodes>
          <leafValues>
            1.5867041051387787e-01 -5.1084077358245850e-01</leafValues></_>
        <_>
          <internalNodes>
            0 -1 110 1.0730493813753128e-03</internalNodes>
          <leafValues>
            -1.8013156950473785e-01 4.3796449899673462e-01</leafValues></_>
        <_>
          <internalNodes>
            0 -1 107 -4.4005047529935837e-03</internalNodes>
          <leafValues>
            5.0451892614364624e-01 -2.4814729392528534e-01</leafValues></_>
        <_>
          <internalNodes>
            0 -1 71 -4.2280247434973717e-03</internalNodes>
          <leafValues>
            -6.2710314989089966e-01 1.8083480000495911e-01</leafValues></_>
        <_>
          <internalNodes>
            0 -1 73 -4.2546242475509644e-03</internalNodes>
          <leafValues>
            2.3119866847991943e-01 -3.2158645987510681e-01</leafValues></_>
        <_>
          <internalNodes>
            0 -1 19 2.0870370790362358e-03</internalNodes>
          <leafValues>
            1.2056758999824524e-01 -7.0322608947753906e-01</leafValues></_>
        <_>
          <internalNodes>
            0 -1 48 -1.9497264176607132e-02</internalNodes>
          <leafValues>
            5.7043856382369995e-01 -1.5593357384204865e-01</leafValues></_>
        <_>
          <internalNodes>
            0 -1 89 -5.0059049390256405e-03</internalNodes>
          <leafValues>
            -6.8015539646148682e-01 1.3150128722190857e-01</leafValues></_>
        <_>
          <internalNodes>
            0 -1 104 -1.7283825436607003e-03</internalNodes>
          <leafValues>
            3.6103257536888123e-01 -2.4215440452098846e-01</leafValues></_>
        <_>
          <internalNodes>
            0 -1 104 4.6399841085076332e-03</internalNodes>
          <leafValues>
            -1.7355991899967194e-01 4.8536539077758789e-01</leafValues></_></weakClassifiers></_>
    <!-- stage 8 -->
    <_>
      <maxWeakCount>20</maxWeakCount>
      <stageThreshold>-1.4782128334045410e+00</stageThreshold>
      <weakClassifiers>
        <_>
          <internalNodes>
            0 -1 44 -4.3226424604654312e-02</internalNodes>
          <leafValues>
            2.0457433164119720e-01 -5.5217576026916504e-01</leafValues></_>
        <_>
          <internalNodes>
            0 -1 126 3.1249979510903358e-03</internalNodes>
          <leafValues>
            -2.9361459612846375e-01 4.1452911496162415e-01</leafValues></_>
        <_>
          <internalNodes>
            0 -1 114 3.0645057559013367e-02</internalNodes>
          <leafValues>
            -1.8331079185009003e-01 4.9380379915237427e-01</leafValues></_>
        <_>
          <internalNodes>
            0 -1 146 -4.4822652125731111e-04</internalNodes>
          <leafValues>
            -6.7856419086456299e-01 1.1828166246414185e-01</leafValues></_>
        <_>
          <internalNodes>
            0 -1 116 -3.3883112482726574e-03</internalNodes>
          <leafValues>
            5.9542918205261230e-01 -1.3632547855377197e-01</leafValues></_>
        <_>
          <internalNodes>
            0 -1 146 3.9459130493924022e-04</internalNodes>
          <leafValues>
            1.6196751594543457e-01 -5.7853597402572632e-01</leafValues></_>
        <_>
          <internalNodes>
            0 -1 2 1.1815172620117664e-03</internalNodes>
          <leafValues>
            -3.5893329977989197e-01 2.5478705763816833e-01</leafValues></_>
        <_>
          <internalNodes>
            0 -1 119 -4.3004034087061882e-03</internalNodes>
          <leafValues>
            6.3657593727111816e-01 -1.6226883232593536e-01</leafValues></_>
        <_>
          <internalNodes>
            0 -1 40 -3.4097716212272644e-02</internalNodes>
          <leafValues>
            -7.5413405895233154e-01 1.4748193323612213e-01</leafValues></_>
        <_>
          <internalNodes>
            0 -1 124 -9.8537653684616089e-03</internalNodes>
          <leafValues>
            5.0349235534667969e-01 -1.9742497801780701e-01</leafValues></_>
        <_>
          <internalNodes>
            0 -1 60 6.7169852554798126e-03</internalNodes>
          <leafValues>
            -1.9311222434043884e-01 3.9149656891822815e-01</leafValues></_>
        <_>
          <internalNodes>
            0 -1 67 -1.6169380396604538e-02</internalNodes>
          <leafValues>
            -7.2021335363388062e-01 9.9892482161521912e-02</leafValues></_>
        <_>
          <internalNodes>
            0 -1 85 -1.8843526486307383e-03</internalNodes>
          <leafValues>
            3.9109614491462708e-01 -2.2315210103988647e-01</leafValues></_>
        <_>
          <internalNodes>
            0 -1 75 -4.1899625211954117e-03</internalNodes>
          <leafValues>
            5.7371288537979126e-01 -1.7585599422454834e-01</leafValues></_>
        <_>
          <internalNodes>
            0 -1 64 -2.1322006359696388e-03</internalNodes>
          <leafValues>
            -8.6697256565093994e-01 9.2193752527236938e-02</leafValues></_>
        <_>
          <internalNodes>
            0 -1 30 -6.1686099506914616e-03</internalNodes>
          <leafValues>
            3.0594837665557861e-01 -2.4721562862396240e-01</leafValues></_>
        <_>
          <internalNodes>
            0 -1 68 6.8245548754930496e-03</internalNodes>
          <leafValues>
            9.5903247594833374e-02 -8.3339416980743408e-01</leafValues></_>
        <_>
          <internalNodes>
            0 -1 106 3.0566741770599037e-05</internalNodes>
          <leafValues>
            -3.0458191037178040e-01 2.3789915442466736e-01</leafValues></_>
        <_>
          <internalNodes>
            0 -1 70 -1.7179496353492141e-03</internalNodes>
          <leafValues>
            -6.8703025579452515e-01 1.0225540399551392e-01</leafValues></_>
        <_>
          <internalNodes>
            0 -1 133 -1.1690727435052395e-02</internalNodes>
          <leafValues>
            3.6443147063255310e-01 -2.3278543353080750e-01</leafValues></_></weakClassifiers></_>
    <!-- stage 9 -->
    <_>
      <maxWeakCount>19</maxWeakCount>
      <stageThreshold>-1.5063755512237549e+00</stageThreshold>
      <weakClassifiers>
        <_>
          <internalNodes>
            0 -1 33 -1.5657714009284973e-01</internalNodes>
          <leafValues>
            -2.6148410513997078e-02 -6.3772284984588623e-01</leafValues></_>
        <_>
          <internalNodes>
            0 -1 38 3.2419867813587189e-02</internalNodes>
          <leafValues>
            -2.4885512888431549e-01 4.4111052155494690e-01</leafValues></_>
        <_>
          <internalNodes>
            0 -1 132 4.9890782684087753e-03</internalNodes>
          <leafValues>
            -2.1542093157768250e-01 4.2217946052551270e-01</leafValues></_>
        <_>
          <internalNodes>
            0 -1 47 4.9047909677028656e-02</internalNodes>
          <leafValues>
            -1.6265773773193359e-01 5.0155735015869141e-01</leafValues></_>
        <_>
          <internalNodes>
            0 -1 21 -1.6559663927182555e-03</internalNodes>
          <leafValues>
            -6.4634144306182861e-01 1.4187265932559967e-01</leafValues></_>
        <_>
          <internalNodes>
            0 -1 76 5.3609111346304417e-03</internalNodes>
          <leafValues>
            -1.2185814231634140e-01 5.6070762872695923e-01</leafValues></_>
        <_>
          <internalNodes>
            0 -1 77 -3.9813839830458164e-03</internalNodes>
          <leafValues>
            4.3873745203018188e-01 -2.0192997157573700e-01</leafValues></_>
        <_>
          <internalNodes>
            0 -1 83 1.8381250556558371e-03</internalNodes>
          <leafValues>
            1.0291559994220734e-01 -8.6407005786895752e-01</leafValues></_>
        <_>
          <internalNodes>
            0 -1 82 -1.1212017852813005e-03</internalNodes>
          <leafValues>
            -6.3979393243789673e-01 1.3369514048099518e-01</leafValues></_>
        <_>
          <internalNodes>
            0 -1 80 4.5931143686175346e-03</internalNodes>
          <leafValues>
            -2.2696432471275330e-01 3.9940717816352844e-01</leafValues></_>
        <_>
          <internalNodes>
            0 -1 138 -3.2459609210491180e-03</internalNodes>
          <leafValues>
            -4.7094160318374634e-01 1.7976520955562592e-01</leafValues></_>
        <_>
          <internalNodes>
            0 -1 111 2.0722546614706516e-03</internalNodes>
          <leafValues>
            -2.6669302582740784e-01 2.6305663585662842e-01</leafValues></_>
        <_>
          <internalNodes>
            0 -1 72 -2.9937751591205597e-02</internalNodes>
          <leafValues>
            -5.5118203163146973e-01 1.2380588799715042e-01</leafValues></_>
        <_>
          <internalNodes>
            0 -1 43 -9.0946188720408827e-05</internalNodes>
          <leafValues>
            2.4414066970348358e-01 -2.9027172923088074e-01</leafValues></_>
        <_>
          <internalNodes>
            0 -1 11 -3.6026482121087611e-04</internalNodes>
          <leafValues>
            -5.9695202112197876e-01 1.1269693821668625e-01</leafValues></_>
        <_>
          <internalNodes>
            0 -1 34 4.9361377023160458e-03</internalNodes>
          <leafValues>
            -3.0032637715339661e-01 2.3071488738059998e-01</leafValues></_>
        <_>
          <internalNodes>
            0 -1 51 -2.7098081773146987e-04</internalNodes>
          <leafValues>
            1.9106908142566681e-01 -3.7336438894271851e-01</leafValues></_>
        <_>
          <internalNodes>
            0 -1 49 2.3009004071354866e-02</internalNodes>
          <leafValues>
            8.7007790803909302e-02 -7.1411830186843872e-01</leafValues></_>
        <_>
          <internalNodes>
            0 -1 122 -2.9184248298406601e-02</internalNodes>
          <leafValues>
            5.4663538932800293e-01 -1.3376313447952271e-01</leafValues></_></weakClassifiers></_>
    <!-- stage 10 -->
    <_>
      <maxWeakCount>19</maxWeakCount>
      <stageThreshold>-1.5875588655471802e+00</stageThreshold>
      <weakClassifiers>
        <_>
          <internalNodes>
            0 -1 0 2.4223618209362030e-02</internalNodes>
          <leafValues>
            -5.0510603189468384e-01 2.3026315867900848e-01</leafValues></_>
        <_>
          <internalNodes>
            0 -1 115 -3.4024722874164581e-02</internalNodes>
          <leafValues>
            2.3320960998535156e-01 -4.4671353697776794e-01</leafValues></_>
        <_>
          <internalNodes>
            0 -1 31 2.3588530719280243e-02</internalNodes>
          <leafValues>
            -3.0797269940376282e-01 3.0235227942466736e-01</leafValues></_>
        <_>
          <internalNodes>
            0 -1 18 -5.3555192425847054e-04</internalNodes>
          <leafValues>
            -6.8714451789855957e-01 1.2837575376033783e-01</leafValues></_>
        <_>
          <internalNodes>
            0 -1 105 1.1629717424511909e-02</internalNodes>
          <leafValues>
            -1.3364171981811523e-01 5.5181908607482910e-01</leafValues></_>
        <_>
          <internalNodes>
            0 -1 108 8.3779478445649147e-03</internalNodes>
          <leafValues>
            -1.9661189615726471e-01 4.6710801124572754e-01</leafValues></_>
        <_>
          <internalNodes>
            0 -1 137 -5.2583273500204086e-03</internalNodes>
          <leafValues>
            -4.1783976554870605e-01 1.8109989166259766e-01</leafValues></_>
        <_>
          <internalNodes>
            0 -1 63 2.2712426725775003e-03</internalNodes>
          <leafValues>
            7.8018657863140106e-02 -7.6148289442062378e-01</leafValues></_>
        <_>
          <internalNodes>
            0 -1 99 2.7224123477935791e-03</internalNodes>
          <leafValues>
            -1.9462475180625916e-01 3.7791198492050171e-01</leafValues></_>
        <_>
          <internalNodes>
            0 -1 118 7.3312711901962757e-04</internalNodes>
          <leafValues>
            -2.5586283206939697e-01 2.7914378046989441e-01</leafValues></_>
        <_>
          <internalNodes>
            0 -1 120 1.5268381685018539e-03</internalNodes>
          <leafValues>
            1.0713163763284683e-01 -6.5773701667785645e-01</leafValues></_>
        <_>
          <internalNodes>
            0 -1 92 2.3902066051959991e-02</internalNodes>
          <leafValues>
            -1.8345560133457184e-01 3.9387807250022888e-01</leafValues></_>
        <_>
          <internalNodes>
            0 -1 113 -1.9697684794664383e-02</internalNodes>
          <leafValues>
            4.5294579863548279e-01 -1.7614148557186127e-01</leafValues></_>
        <_>
          <internalNodes>
            0 -1 147 -1.6992539167404175e-03</internalNodes>
          <leafValues>
            -5.6985384225845337e-01 1.2890297174453735e-01</leafValues></_>
        <_>
          <internalNodes>
            0 -1 66 -3.5739184822887182e-03</internalNodes>
          <leafValues>
            3.4898254275321960e-01 -2.0515346527099609e-01</leafValues></_>
        <_>
          <internalNodes>
            0 -1 149 1.0055138263851404e-03</internalNodes>
          <leafValues>
            9.7313180565834045e-02 -7.7801692485809326e-01</leafValues></_>
        <_>
          <internalNodes>
            0 -1 25 -2.6260673999786377e-02</internalNodes>
          <leafValues>
            2.9796805977821350e-01 -2.7352684736251831e-01</leafValues></_>
        <_>
          <internalNodes>
            0 -1 62 -3.6960514262318611e-03</internalNodes>
          <leafValues>
            4.1961008310317993e-01 -2.0384401082992554e-01</leafValues></_>
        <_>
          <internalNodes>
            0 -1 23 -2.4191320699173957e-04</internalNodes>
          <leafValues>
            -4.9083536863327026e-01 1.5079979598522186e-01</leafValues></_></weakClassifiers></_></stages>
  <features>
    <_>
      <rects>
        <_>
          0 0 2 20 -1.</_>
        <_>
          1 0 1 20 2.</_></rects>
      <tilted>0</tilted></_>
    <_>
      <rects>
        <_>
          0 0 2 23 -1.</_>
        <_>
          1 0 1 23 2.</_></rects>
      <tilted>0</tilted></_>
    <_>
      <rects>
        <_>
          0 0 9 6 -1.</_>
        <_>
          3 0 3 6 3.</_></rects>
      <tilted>0</tilted></_>
    <_>
      <rects>
        <_>
          0 0 20 4 -1.</_>
        <_>
          0 2 20 2 2.</_></rects>
      <tilted>0</tilted></_>
    <_>
      <rects>
        <_>
          0 1 2 14 -1.</_>
        <_>
          0 1 1 7 2.</_>
        <_>
          1 8 1 7 2.</_></rects>
      <tilted>0</tilted></_>
    <_>
      <rects>
        <_>
          0 1 2 20 -1.</_>
        <_>
          1 1 1 20 2.</_></rects>
      <tilted>0</tilted></_>
    <_>
      <rects>
        <_>
          0 2 3 16 -1.</_>
        <_>
          1 2 1 16 3.</_></rects>
      <tilted>0</tilted></_>
    <_>
      <rects>
        <_>
          0 2 4 12 -1.</_>
        <_>
          0 2 2 6 2.</_>
        <_>
          2 8 2 6 2.</_></rects>
      <tilted>0</tilted></_>
    <_>
      <rects>
        <_>
          0 4 2 18 -1.</_>
        <_>
          1 4 1 18 2.</_></rects>
      <tilted>0</tilted></_>
    <_>
      <rects>
        <_>
          0 5 3 16 -1.</_>
        <_>
          1 5 1 16 3.</_></rects>
      <tilted>0</tilted></_>
    <_>
      <rects>
        <_>
          0 6 1 3 -1.</_>
        <_>
          0 7 1 1 3.</_></rects>
      <tilted>0</tilted></_>
    <_>
      <rects>
        <_>
          0 7 1 2 -1.</_>
        <_>
          0 8 1 1 2.</_></rects>
      <tilted>0</tilted></_>
    <_>
      <rects>
        <_>
          0 7 1 3 -1.</_>
        <_>
          0 8 1 1 3.</_></rects>
      <tilted>0</tilted></_>
    <_>
      <rects>
        <_>
          0 7 3 11 -1.</_>
        <_>
          1 7 1 11 3.</_></rects>
      <tilted>0</tilted></_>
    <_>
      <rects>
        <_>
          0 7 4 13 -1.</_>
        <_>
          2 7 2 13 2.</_></rects>
      <tilted>0</tilted></_>
    <_>
      <rects>
        <_>
          0 10 3 4 -1.</_>
        <_>
          1 10 1 4 3.</_></rects>
      <tilted>0</tilted></_>
    <_>
      <rects>
        <_>
          0 11 1 2 -1.</_>
        <_>
          0 12 1 1 2.</_></rects>
      <tilted>0</tilted></_>
    <_>
      <rects>
        <_>
          0 11 4 12 -1.</_>
        <_>
          0 11 2 6 2.</_>
        <_>
          2 17 2 6 2.</_></rects>
      <tilted>0</tilted></_>
    <_>
      <rects>
        <_>
          0 12 1 3 -1.</_>
        <_>
          0 13 1 1 3.</_></rects>
      <tilted>0</tilted></_>
    <_>
      <rects>
        <_>
          0 12 1 6 -1.</_>
        <_>
          0 14 1 2 3.</_></rects>
      <tilted>0</tilted></_>
    <_>
      <rects>
        <_>
          0 13 1 3 -1.</_>
        <_>
          0 14 1 1 3.</_></rects>
      <tilted>0</tilted></_>
    <_>
      <rects>
        <_>
          0 13 1 6 -1.</_>
        <_>
          0 15 1 2 3.</_></rects>
      <tilted>0</tilted></_>
    <_>
      <rects>
        <_>
          0 14 1 2 -1.</_>
        <_>
          0 15 1 1 2.</_></rects>
      <tilted>0</tilted></_>
    <_>
      <rects>
        <_>
          0 14 1 3 -1.</_>
        <_>
          0 15 1 1 3.</_></rects>
      <tilted>0</tilted></_>
    <_>
      <rects>
        <_>
          0 15 21 9 -1.</_>
        <_>
          0 18 21 3 3.</_></rects>
      <tilted>0</tilted></_>
    <_>
      <rects>
        <_>
          0 20 21 4 -1.</_>
        <_>
          0 22 21 2 2.</_></rects>
      <tilted>0</tilted></_>
    <_>
      <rects>
        <_>
          1 0 20 12 -1.</_>
        <_>
          1 4 20 4 3.</_></rects>
      <tilted>0</tilted></_>
    <_>
      <rects>
        <_>
          1 5 3 14 -1.</_>
        <_>
          2 5 1 14 3.</_></rects>
      <tilted>0</tilted></_>
    <_>
      <rects>
        <_>
          1 8 3 7 -1.</_>
        <_>
          2 8 1 7 3.</_></rects>
      <tilted>0</tilted></_>
    <_>
      <rects>
        <_>
          1 9 6 6 -1.</_>
        <_>
          3 9 2 6 3.</_></rects>
      <tilted>0</tilted></_>
    <_>
      <rects>
        <_>
          1 13 6 4 -1.</_>
        <_>
          3 13 2 4 3.</_></rects>
      <tilted>0</tilted></_>
    <_>
      <rects>
        <_>
          2 0 11 6 -1.</_>
        <_>
          2 3 11 3 2.</_></rects>
      <tilted>0</tilted></_>
    <_>
      <rects>
        <_>
          2 0 21 9 -1.</_>
        <_>
          2 3 21 3 3.</_></rects>
      <tilted>0</tilted></_>
    <_>
      <rects>
        <_>
          2 3 19 18 -1.</_>
        <_>
          2 9 19 6 3.</_></rects>
      <tilted>0</tilted></_>
    <_>
      <rects>
        <_>
          2 5 6 11 -1.</_>
        <_>
          5 5 3 11 2.</_></rects>
      <tilted>0</tilted></_>
    <_>
      <rects>
        <_>
          2 12 9 12 -1.</_>
        <_>
          2 16 9 4 3.</_></rects>
      <tilted>0</tilted></_>
    <_>
      <rects>
        <_>
          2 15 18 9 -1.</_>
        <_>
          2 18 18 3 3.</_></rects>
      <tilted>0</tilted></_>
    <_>
      <rects>
        <_>
          2 15 19 9 -1.</_>
        <_>
          2 18 19 3 3.</_></rects>
      <tilted>0</tilted></_>
    <_>
      <rects>
        <_>
          2 18 9 6 -1.</_>
        <_>
          2 20 9 2 3.</_></rects>
      <tilted>0</tilted></_>
    <_>
      <rects>
        <_>
          2 18 21 6 -1.</_>
        <_>
          2 20 21 2 3.</_></rects>
      <tilted>0</tilted></_>
    <_>
      <rects>
        <_>
          3 0 12 7 -1.</_>
        <_>
          7 0 4 7 3.</_></rects>
      <tilted>0</tilted></_>
    <_>
      <rects>
        <_>
          3 0 19 9 -1.</_>
        <_>
          3 3 19 3 3.</_></rects>
      <tilted>0</tilted></_>
    <_>
      <rects>
        <_>
          3 0 19 12 -1.</_>
        <_>
          3 4 19 4 3.</_></rects>
      <tilted>0</tilted></_>
    <_>
      <rects>
        <_>
          3 3 4 2 -1.</_>
        <_>
          5 3 2 2 2.</_></rects>
      <tilted>0</tilted></_>
    <_>
      <rects>
        <_>
          3 3 2 18 -1.</_>
        <_>
          3 9 2 6 3.</_></rects>
      <tilted>0</tilted></_>
    <_>
      <rects>
        <_>
          3 8 4 7 -1.</_>
        <_>
          5 8 2 7 2.</_></rects>
      <tilted>0</tilted></_>
    <_>
      <rects>
        <_>
          3 13 5 8 -1.</_>
        <_>
          3 17 5 4 2.</_></rects>
      <tilted>0</tilted></_>
    <_>
      <rects>
        <_>
          3 16 11 6 -1.</_>
        <_>
          3 18 11 2 3.</_></rects>
      <tilted>0</tilted></_>
    <_>
      <rects>
        <_>
          3 17 9 6 -1.</_>
        <_>
          3 19 9 2 3.</_></rects>
      <tilted>0</tilted></_>
    <_>
      <rects>
        <_>
          4 11 12 3 -1.</_>
        <_>
          10 11 6 3 2.</_></rects>
      <tilted>0</tilted></_>
    <_>
      <rects>
        <_>
          4 12 3 2 -1.</_>
        <_>
          5 12 1 2 3.</_></rects>
      <tilted>0</tilted></_>
    <_>
      <rects>
        <_>
          5 4 4 10 -1.</_>
        <_>
          5 9 4 5 2.</_></rects>
      <tilted>0</tilted></_>
    <_>
      <rects>
        <_>
          5 8 3 8 -1.</_>
        <_>
          6 8 1 8 3.</_></rects>
      <tilted>0</tilted></_>
    <_>
      <rects>
        <_>
          5 10 3 5 -1.</_>
        <_>
          6 10 1 5 3.</_></rects>
      <tilted>0</tilted></_>
    <_>
      <rects>
        <_>
          5 10 3 6 -1.</_>
        <_>
          6 10 1 6 3.</_></rects>
      <tilted>0</tilted></_>
    <_>
      <rects>
        <_>
          5 10 3 7 -1.</_>
        <_>
          6 10 1 7 3.</_></rects>
      <tilted>0</tilted></_>
    <_>
      <rects>
        <_>
          5 15 10 9 -1.</_>
        <_>
          5 18 10 3 3.</_></rects>
      <tilted>0</tilted></_>
    <_>
      <rects>
        <_>
          5 16 13 6 -1.</_>
        <_>
          5 19 13 3 2.</_></rects>
      <tilted>0</tilted></_>
    <_>
      <rects>
        <_>
          5 18 19 4 -1.</_>
        <_>
          5 20 19 2 2.</_></rects>
      <tilted>0</tilted></_>
    <_>
      <rects>
        <_>
          5 22 3 2 -1.</_>
        <_>
          6 22 1 2 3.</_></rects>
      <tilted>0</tilted></_>
    <_>
      <rects>
        <_>
          6 0 18 2 -1.</_>
        <_>
          6 1 18 1 2.</_></rects>
      <tilted>0</tilted></_>
    <_>
      <rects>
        <_>
          6 10 2 6 -1.</_>
        <_>
          7 10 1 6 2.</_></rects>
      <tilted>0</tilted></_>
    <_>
      <rects>
        <_>
          6 12 3 4 -1.</_>
        <_>
          7 12 1 4 3.</_></rects>
      <tilted>0</tilted></_>
    <_>
      <rects>
        <_>
          6 21 3 3 -1.</_>
        <_>
          7 21 1 3 3.</_></rects>
      <tilted>0</tilted></_>
    <_>
      <rects>
        <_>
          6 22 3 2 -1.</_>
        <_>
          7 22 1 2 3.</_></rects>
      <tilted>0</tilted></_>
    <_>
      <rects>
        <_>
          7 0 6 4 -1.</_>
        <_>
          9 0 2 4 3.</_></rects>
      <tilted>0</tilted></_>
    <_>
      <rects>
        <_>
          7 8 3 7 -1.</_>
        <_>
          8 8 1 7 3.</_></rects>
      <tilted>0</tilted></_>
    <_>
      <rects>
        <_>
          7 19 9 5 -1.</_>
        <_>
          10 19 3 5 3.</_></rects>
      <tilted>0</tilted></_>
    <_>
      <rects>
        <_>
          8 0 6 3 -1.</_>
        <_>
          10 0 2 3 3.</_></rects>
      <tilted>0</tilted></_>
    <_>
      <rects>
        <_>
          8 1 6 2 -1.</_>
        <_>
          10 1 2 2 3.</_></rects>
      <tilted>0</tilted></_>
    <_>
      <rects>
        <_>
          8 2 6 1 -1.</_>
        <_>
          10 2 2 1 3.</_></rects>
      <tilted>0</tilted></_>
    <_>
      <rects>
        <_>
          9 1 6 3 -1.</_>
        <_>
          11 1 2 3 3.</_></rects>
      <tilted>0</tilted></_>
    <_>
      <rects>
        <_>
          9 1 12 11 -1.</_>
        <_>
          13 1 4 11 3.</_></rects>
      <tilted>0</tilted></_>
    <_>
      <rects>
        <_>
          9 5 6 10 -1.</_>
        <_>
          11 5 2 10 3.</_></rects>
      <tilted>0</tilted></_>
    <_>
      <rects>
        <_>
          9 8 3 8 -1.</_>
        <_>
          10 8 1 8 3.</_></rects>
      <tilted>0</tilted></_>
    <_>
      <rects>
        <_>
          9 9 3 4 -1.</_>
        <_>
          10 9 1 4 3.</_></rects>
      <tilted>0</tilted></_>
    <_>
      <rects>
        <_>
          9 10 3 2 -1.</_>
        <_>
          10 10 1 2 3.</_></rects>
      <tilted>0</tilted></_>
    <_>
      <rects>
        <_>
          9 10 3 6 -1.</_>
        <_>
          10 10 1 6 3.</_></rects>
      <tilted>0</tilted></_>
    <_>
      <rects>
        <_>
          9 10 6 7 -1.</_>
        <_>
          11 10 2 7 3.</_></rects>
      <tilted>0</tilted></_>
    <_>
      <rects>
        <_>
          9 12 3 5 -1.</_>
        <_>
          10 12 1 5 3.</_></rects>
      <tilted>0</tilted></_>
    <_>
      <rects>
        <_>
          9 12 3 6 -1.</_>
        <_>
          10 12 1 6 3.</_></rects>
      <tilted>0</tilted></_>
    <_>
      <rects>
        <_>
          9 18 13 6 -1.</_>
        <_>
          9 21 13 3 2.</_></rects>
      <tilted>0</tilted></_>
    <_>
      <rects>
        <_>
          9 21 3 3 -1.</_>
        <_>
          10 21 1 3 3.</_></rects>
      <tilted>0</tilted></_>
    <_>
      <rects>
        <_>
          9 22 3 2 -1.</_>
        <_>
          10 22 1 2 3.</_></rects>
      <tilted>0</tilted></_>
    <_>
      <rects>
        <_>
          10 1 3 3 -1.</_>
        <_>
          11 1 1 3 3.</_></rects>
      <tilted>0</tilted></_>
    <_>
      <rects>
        <_>
          10 9 3 3 -1.</_>
        <_>
          11 9 1 3 3.</_></rects>
      <tilted>0</tilted></_>
    <_>
      <rects>
        <_>
          10 9 3 4 -1.</_>
        <_>
          11 9 1 4 3.</_></rects>
      <tilted>0</tilted></_>
    <_>
      <rects>
        <_>
          10 11 3 3 -1.</_>
        <_>
          11 11 1 3 3.</_></rects>
      <tilted>0</tilted></_>
    <_>
      <rects>
        <_>
          10 11 3 4 -1.</_>
        <_>
          11 11 1 4 3.</_></rects>
      <tilted>0</tilted></_>
    <_>
      <rects>
        <_>
          11 1 6 3 -1.</_>
        <_>
          13 1 2 3 3.</_></rects>
      <tilted>0</tilted></_>
    <_>
      <rects>
        <_>
          11 3 9 18 -1.</_>
        <_>
          11 9 9 6 3.</_></rects>
      <tilted>0</tilted></_>
    <_>
      <rects>
        <_>
          11 8 3 7 -1.</_>
        <_>
          12 8 1 7 3.</_></rects>
      <tilted>0</tilted></_>
    <_>
      <rects>
        <_>
          11 15 9 6 -1.</_>
        <_>
          11 17 9 2 3.</_></rects>
      <tilted>0</tilted></_>
    <_>
      <rects>
        <_>
          11 21 3 3 -1.</_>
        <_>
          12 21 1 3 3.</_></rects>
      <tilted>0</tilted></_>
    <_>
      <rects>
        <_>
          11 21 6 3 -1.</_>
        <_>
          13 21 2 3 3.</_></rects>
      <tilted>0</tilted></_>
    <_>
      <rects>
        <_>
          11 22 6 2 -1.</_>
        <_>
          13 22 2 2 3.</_></rects>
      <tilted>0</tilted></_>
    <_>
      <rects>
        <_>
          11 23 3 1 -1.</_>
        <_>
          12 23 1 1 3.</_></rects>
      <tilted>0</tilted></_>
    <_>
      <rects>
        <_>
          12 6 3 10 -1.</_>
        <_>
          13 6 1 10 3.</_></rects>
      <tilted>0</tilted></_>
    <_>
      <rects>
        <_>
          12 9 3 3 -1.</_>
        <_>
          13 9 1 3 3.</_></rects>
      <tilted>0</tilted></_>
    <_>
      <rects>
        <_>
          12 13 3 3 -1.</_>
        <_>
          13 13 1 3 3.</_></rects>
      <tilted>0</tilted></_>
    <_>
      <rects>
        <_>
          13 6 3 12 -1.</_>
        <_>
          14 6 1 12 3.</_></rects>
      <tilted>0</tilted></_>
    <_>
      <rects>
        <_>
          13 8 3 10 -1.</_>
        <_>
          14 8 1 10 3.</_></rects>
      <tilted>0</tilted></_>
    <_>
      <rects>
        <_>
          13 9 3 8 -1.</_>
        <_>
          14 9 1 8 3.</_></rects>
      <tilted>0</tilted></_>
    <_>
      <rects>
        <_>
          13 10 3 6 -1.</_>
        <_>
          14 10 1 6 3.</_></rects>
      <tilted>0</tilted></_>
    <_>
      <rects>
        <_>
          13 12 3 3 -1.</_>
        <_>
          14 12 1 3 3.</_></rects>
      <tilted>0</tilted></_>
    <_>
      <rects>
        <_>
          13 12 3 5 -1.</_>
        <_>
          14 12 1 5 3.</_></rects>
      <tilted>0</tilted></_>
    <_>
      <rects>
        <_>
          14 4 1 2 -1.</_>
        <_>
          14 5 1 1 2.</_></rects>
      <tilted>0</tilted></_>
    <_>
      <rects>
        <_>
          14 8 3 9 -1.</_>
        <_>
          15 8 1 9 3.</_></rects>
      <tilted>0</tilted></_>
    <_>
      <rects>
        <_>
          14 10 3 9 -1.</_>
        <_>
          15 10 1 9 3.</_></rects>
      <tilted>0</tilted></_>
    <_>
      <rects>
        <_>
          14 10 4 5 -1.</_>
        <_>
          16 10 2 5 2.</_></rects>
      <tilted>0</tilted></_>
    <_>
      <rects>
        <_>
          14 11 3 1 -1.</_>
        <_>
          15 11 1 1 3.</_></rects>
      <tilted>0</tilted></_>
    <_>
      <rects>
        <_>
          15 1 9 3 -1.</_>
        <_>
          18 1 3 3 3.</_></rects>
      <tilted>0</tilted></_>
    <_>
      <rects>
        <_>
          15 4 9 1 -1.</_>
        <_>
          18 4 3 1 3.</_></rects>
      <tilted>0</tilted></_>
    <_>
      <rects>
        <_>
          15 13 7 9 -1.</_>
        <_>
          15 16 7 3 3.</_></rects>
      <tilted>0</tilted></_>
    <_>
      <rects>
        <_>
          15 17 7 6 -1.</_>
        <_>
          15 19 7 2 3.</_></rects>
      <tilted>0</tilted></_>
    <_>
      <rects>
        <_>
          16 3 7 18 -1.</_>
        <_>
          16 9 7 6 3.</_></rects>
      <tilted>0</tilted></_>
    <_>
      <rects>
        <_>
          17 12 3 2 -1.</_>
        <_>
          18 12 1 2 3.</_></rects>
      <tilted>0</tilted></_>
    <_>
      <rects>
        <_>
          17 15 2 9 -1.</_>
        <_>
          17 18 2 3 3.</_></rects>
      <tilted>0</tilted></_>
    <_>
      <rects>
        <_>
          18 3 6 2 -1.</_>
        <_>
          20 3 2 2 3.</_></rects>
      <tilted>0</tilted></_>
    <_>
      <rects>
        <_>
          18 12 3 2 -1.</_>
        <_>
          19 12 1 2 3.</_></rects>
      <tilted>0</tilted></_>
    <_>
      <rects>
        <_>
          19 1 2 3 -1.</_>
        <_>
          20 1 1 3 2.</_></rects>
      <tilted>0</tilted></_>
    <_>
      <rects>
        <_>
          20 0 4 16 -1.</_>
        <_>
          20 0 2 8 2.</_>
        <_>
          22 8 2 8 2.</_></rects>
      <tilted>0</tilted></_>
    <_>
      <rects>
        <_>
          20 8 4 8 -1.</_>
        <_>
          22 8 2 8 2.</_></rects>
      <tilted>0</tilted></_>
    <_>
      <rects>
        <_>
          20 11 4 12 -1.</_>
        <_>
          20 11 2 6 2.</_>
        <_>
          22 17 2 6 2.</_></rects>
      <tilted>0</tilted></_>
    <_>
      <rects>
        <_>
          21 0 3 12 -1.</_>
        <_>
          22 0 1 12 3.</_></rects>
      <tilted>0</tilted></_>
    <_>
      <rects>
        <_>
          21 1 3 21 -1.</_>
        <_>
          22 1 1 21 3.</_></rects>
      <tilted>0</tilted></_>
    <_>
      <rects>
        <_>
          21 3 3 5 -1.</_>
        <_>
          22 3 1 5 3.</_></rects>
      <tilted>0</tilted></_>
    <_>
      <rects>
        <_>
          21 6 3 6 -1.</_>
        <_>
          22 6 1 6 3.</_></rects>
      <tilted>0</tilted></_>
    <_>
      <rects>
        <_>
          21 9 3 4 -1.</_>
        <_>
          22 9 1 4 3.</_></rects>
      <tilted>0</tilted></_>
    <_>
      <rects>
        <_>
          21 9 3 5 -1.</_>
        <_>
          22 9 1 5 3.</_></rects>
      <tilted>0</tilted></_>
    <_>
      <rects>
        <_>
          21 14 3 4 -1.</_>
        <_>
          22 14 1 4 3.</_></rects>
      <tilted>0</tilted></_>
    <_>
      <rects>
        <_>
          21 15 3 4 -1.</_>
        <_>
          22 15 1 4 3.</_></rects>
      <tilted>0</tilted></_>
    <_>
      <rects>
        <_>
          21 16 3 5 -1.</_>
        <_>
          22 16 1 5 3.</_></rects>
      <tilted>0</tilted></_>
    <_>
      <rects>
        <_>
          22 0 2 20 -1.</_>
        <_>
          23 0 1 20 2.</_></rects>
      <tilted>0</tilted></_>
    <_>
      <rects>
        <_>
          22 1 2 22 -1.</_>
        <_>
          23 1 1 22 2.</_></rects>
      <tilted>0</tilted></_>
    <_>
      <rects>
        <_>
          22 3 2 20 -1.</_>
        <_>
          23 3 1 20 2.</_></rects>
      <tilted>0</tilted></_>
    <_>
      <rects>
        <_>
          22 8 2 15 -1.</_>
        <_>
          23 8 1 15 2.</_></rects>
      <tilted>0</tilted></_>
    <_>
      <rects>
        <_>
          23 2 1 21 -1.</_>
        <_>
          23 9 1 7 3.</_></rects>
      <tilted>0</tilted></_>
    <_>
      <rects>
        <_>
          23 5 1 15 -1.</_>
        <_>
          23 10 1 5 3.</_></rects>
      <tilted>0</tilted></_>
    <_>
      <rects>
        <_>
          23 6 1 9 -1.</_>
        <_>
          23 9 1 3 3.</_></rects>
      <tilted>0</tilted></_>
    <_>
      <rects>
        <_>
          23 7 1 9 -1.</_>
        <_>
          23 10 1 3 3.</_></rects>
      <tilted>0</tilted></_>
    <_>
      <rects>
        <_>
          23 8 1 3 -1.</_>
        <_>
          23 9 1 1 3.</_></rects>
      <tilted>0</tilted></_>
    <_>
      <rects>
        <_>
          23 9 1 3 -1.</_>
        <_>
          23 10 1 1 3.</_></rects>
      <tilted>0</tilted></_>
    <_>
      <rects>
        <_>
          23 10 1 2 -1.</_>
        <_>
          23 11 1 1 2.</_></rects>
      <tilted>0</tilted></_>
    <_>
      <rects>
        <_>
          23 10 1 3 -1.</_>
        <_>
          23 11 1 1 3.</_></rects>
      <tilted>0</tilted></_>
    <_>
      <rects>
        <_>
          23 11 1 2 -1.</_>
        <_>
          23 12 1 1 2.</_></rects>
      <tilted>0</tilted></_>
    <_>
      <rects>
        <_>
          23 13 1 3 -1.</_>
        <_>
          23 14 1 1 3.</_></rects>
      <tilted>0</tilted></_>
    <_>
      <rects>
        <_>
          23 15 1 6 -1.</_>
        <_>
          23 17 1 2 3.</_></rects>
      <tilted>0</tilted></_>
    <_>
      <rects>
        <_>
          23 16 1 3 -1.</_>
        <_>
          23 17 1 1 3.</_></rects>
      <tilted>0</tilted></_>
    <_>
      <rects>
        <_>
          23 17 1 3 -1.</_>
        <_>
          23 18 1 1 3.</_></rects>
      <tilted>0</tilted></_></features></cascade>
</opencv_storage>
