<?xml version="1.0"?>
<opencv_storage>
<stage3>
  <maxWeakCount>13</maxWeakCount>
  <stageThreshold>-1.4477779865264893e+00</stageThreshold>
  <weakClassifiers>
    <_>
      <internalNodes>
        0 -1 11857 9.7642347216606140e-02</internalNodes>
      <leafValues>
        -6.5422224998474121e-01 3.6061945557594299e-01</leafValues></_>
    <_>
      <internalNodes>
        0 -1 2230 -1.1385821737349033e-02</internalNodes>
      <leafValues>
        4.5106595754623413e-01 -3.7874388694763184e-01</leafValues></_>
    <_>
      <internalNodes>
        0 -1 161310 -1.6132012009620667e-02</internalNodes>
      <leafValues>
        6.0912537574768066e-01 -2.2973215579986572e-01</leafValues></_>
    <_>
      <internalNodes>
        0 -1 9437 3.2252498203888535e-04</internalNodes>
      <leafValues>
        1.9273461401462555e-01 -6.1080741882324219e-01</leafValues></_>
    <_>
      <internalNodes>
        0 -1 116451 -3.5085722804069519e-02</internalNodes>
      <leafValues>
        3.4848627448081970e-01 -3.3302739262580872e-01</leafValues></_>
    <_>
      <internalNodes>
        0 -1 131244 1.6144126653671265e-02</internalNodes>
      <leafValues>
        -1.7276053130626678e-01 6.4475482702255249e-01</leafValues></_>
    <_>
      <internalNodes>
        0 -1 131828 -5.9368684887886047e-03</internalNodes>
      <leafValues>
        5.2501970529556274e-01 -2.3492400348186493e-01</leafValues></_>
    <_>
      <internalNodes>
        0 -1 69789 -3.7380944937467575e-02</internalNodes>
      <leafValues>
        6.5602535009384155e-01 -1.5560264885425568e-01</leafValues></_>
    <_>
      <internalNodes>
        0 -1 70648 -1.5471931546926498e-03</internalNodes>
      <leafValues>
        -8.0921930074691772e-01 1.4942999184131622e-01</leafValues></_>
    <_>
      <internalNodes>
        0 -1 70263 3.3444616943597794e-02</internalNodes>
      <leafValues>
        -1.5806904435157776e-01 6.7463093996047974e-01</leafValues></_>
    <_>
      <internalNodes>
        0 -1 90634 3.8891772273927927e-03</internalNodes>
      <leafValues>
        1.3053140044212341e-01 -8.1205445528030396e-01</leafValues></_>
    <_>
      <internalNodes>
        0 -1 67225 8.2714837044477463e-03</internalNodes>
      <leafValues>
        -2.1126955747604370e-01 5.2619731426239014e-01</leafValues></_>
    <_>
      <internalNodes>
        0 -1 70648 1.4548759208992124e-03</internalNodes>
      <leafValues>
        1.8027372658252716e-01 -6.8949377536773682e-01</leafValues></_></weakClassifiers></stage3>
</opencv_storage>
