<?xml version="1.0"?>
<opencv_storage>
<stage8>
  <maxWeakCount>20</maxWeakCount>
  <stageThreshold>-1.4782128334045410e+00</stageThreshold>
  <weakClassifiers>
    <_>
      <internalNodes>
        0 -1 40766 -4.3226424604654312e-02</internalNodes>
      <leafValues>
        2.0457433164119720e-01 -5.5217576026916504e-01</leafValues></_>
    <_>
      <internalNodes>
        0 -1 160094 3.1249979510903358e-03</internalNodes>
      <leafValues>
        -2.9361459612846375e-01 4.1452911496162415e-01</leafValues></_>
    <_>
      <internalNodes>
        0 -1 143715 3.0645057559013367e-02</internalNodes>
      <leafValues>
        -1.8331079185009003e-01 4.9380379915237427e-01</leafValues></_>
    <_>
      <internalNodes>
        0 -1 162289 -4.4822652125731111e-04</internalNodes>
      <leafValues>
        -6.7856419086456299e-01 1.1828166246414185e-01</leafValues></_>
    <_>
      <internalNodes>
        0 -1 150987 -3.3883112482726574e-03</internalNodes>
      <leafValues>
        5.9542918205261230e-01 -1.3632547855377197e-01</leafValues></_>
    <_>
      <internalNodes>
        0 -1 162289 3.9459130493924022e-04</internalNodes>
      <leafValues>
        1.6196751594543457e-01 -5.7853597402572632e-01</leafValues></_>
    <_>
      <internalNodes>
        0 -1 187 1.1815172620117664e-03</internalNodes>
      <leafValues>
        -3.5893329977989197e-01 2.5478705763816833e-01</leafValues></_>
    <_>
      <internalNodes>
        0 -1 154393 -4.3004034087061882e-03</internalNodes>
      <leafValues>
        6.3657593727111816e-01 -1.6226883232593536e-01</leafValues></_>
    <_>
      <internalNodes>
        0 -1 38252 -3.4097716212272644e-02</internalNodes>
      <leafValues>
        -7.5413405895233154e-01 1.4748193323612213e-01</leafValues></_>
    <_>
      <internalNodes>
        0 -1 159786 -9.8537653684616089e-03</internalNodes>
      <leafValues>
        5.0349235534667969e-01 -1.9742497801780701e-01</leafValues></_>
    <_>
      <internalNodes>
        0 -1 71524 6.7169852554798126e-03</internalNodes>
      <leafValues>
        -1.9311222434043884e-01 3.9149656891822815e-01</leafValues></_>
    <_>
      <internalNodes>
        0 -1 89472 -1.6169380396604538e-02</internalNodes>
      <leafValues>
        -7.2021335363388062e-01 9.9892482161521912e-02</leafValues></_>
    <_>
      <internalNodes>
        0 -1 111438 -1.8843526486307383e-03</internalNodes>
      <leafValues>
        3.9109614491462708e-01 -2.2315210103988647e-01</leafValues></_>
    <_>
      <internalNodes>
        0 -1 103620 -4.1899625211954117e-03</internalNodes>
      <leafValues>
        5.7371288537979126e-01 -1.7585599422454834e-01</leafValues></_>
    <_>
      <internalNodes>
        0 -1 80693 -2.1322006359696388e-03</internalNodes>
      <leafValues>
        -8.6697256565093994e-01 9.2193752527236938e-02</leafValues></_>
    <_>
      <internalNodes>
        0 -1 23234 -6.1686099506914616e-03</internalNodes>
      <leafValues>
        3.0594837665557861e-01 -2.4721562862396240e-01</leafValues></_>
    <_>
      <internalNodes>
        0 -1 89916 6.8245548754930496e-03</internalNodes>
      <leafValues>
        9.5903247594833374e-02 -8.3339416980743408e-01</leafValues></_>
    <_>
      <internalNodes>
        0 -1 135427 3.0566741770599037e-05</internalNodes>
      <leafValues>
        -3.0458191037178040e-01 2.3789915442466736e-01</leafValues></_>
    <_>
      <internalNodes>
        0 -1 91302 -1.7179496353492141e-03</internalNodes>
      <leafValues>
        -6.8703025579452515e-01 1.0225540399551392e-01</leafValues></_>
    <_>
      <internalNodes>
        0 -1 161235 -1.1690727435052395e-02</internalNodes>
      <leafValues>
        3.6443147063255310e-01 -2.3278543353080750e-01</leafValues></_></weakClassifiers></stage8>
</opencv_storage>
