<?xml version="1.0"?>
<opencv_storage>
<stage9>
  <maxWeakCount>91</maxWeakCount>
  <stageThreshold>-1.5843151807785034e+00</stageThreshold>
  <weakClassifiers>
    <_>
      <internalNodes>
        0 -1 161771 1.3373507186770439e-02</internalNodes>
      <leafValues>
        -5.4103636741638184e-01 4.1379311680793762e-01</leafValues></_>
    <_>
      <internalNodes>
        0 -1 7557 -3.2442711293697357e-02</internalNodes>
      <leafValues>
        2.7243825793266296e-01 -2.4135026335716248e-01</leafValues></_>
    <_>
      <internalNodes>
        0 -1 114040 -4.0417704731225967e-03</internalNodes>
      <leafValues>
        1.5190464258193970e-01 -2.1117734909057617e-01</leafValues></_>
    <_>
      <internalNodes>
        0 -1 90223 -2.7359515428543091e-02</internalNodes>
      <leafValues>
        1.5391059219837189e-01 -1.6836892068386078e-01</leafValues></_>
    <_>
      <internalNodes>
        0 -1 106789 2.3090135073289275e-04</internalNodes>
      <leafValues>
        6.0858316719532013e-02 -3.8769224286079407e-01</leafValues></_>
    <_>
      <internalNodes>
        0 -1 65723 -4.5446958392858505e-03</internalNodes>
      <leafValues>
        2.1113196015357971e-01 -1.0765600204467773e-01</leafValues></_>
    <_>
      <internalNodes>
        0 -1 151299 -8.6472500115633011e-03</internalNodes>
      <leafValues>
        2.7025914192199707e-01 -9.2533037066459656e-02</leafValues></_>
    <_>
      <internalNodes>
        0 -1 159731 1.4079717220738530e-03</internalNodes>
      <leafValues>
        9.0481579303741455e-02 -4.5809862017631531e-01</leafValues></_>
    <_>
      <internalNodes>
        0 -1 10093 1.5643665101379156e-03</internalNodes>
      <leafValues>
        -1.4252521097660065e-01 1.5110421180725098e-01</leafValues></_>
    <_>
      <internalNodes>
        0 -1 162316 -5.8856243267655373e-03</internalNodes>
      <leafValues>
        -3.0482164025306702e-01 1.0123581439256668e-01</leafValues></_>
    <_>
      <internalNodes>
        0 -1 93292 -3.2892152667045593e-02</internalNodes>
      <leafValues>
        -4.1237851977348328e-01 4.7766163945198059e-02</leafValues></_>
    <_>
      <internalNodes>
        0 -1 151268 -6.9917622022330761e-04</internalNodes>
      <leafValues>
        1.7199364304542542e-01 -1.2244630604982376e-01</leafValues></_>
    <_>
      <internalNodes>
        0 -1 32396 1.7462715506553650e-01</internalNodes>
      <leafValues>
        9.0797230601310730e-02 -2.4551945924758911e-01</leafValues></_>
    <_>
      <internalNodes>
        0 -1 37288 -3.7189237773418427e-02</internalNodes>
      <leafValues>
        6.8496280908584595e-01 -4.6610243618488312e-02</leafValues></_>
    <_>
      <internalNodes>
        0 -1 121241 3.6394404014572501e-04</internalNodes>
      <leafValues>
        7.8589394688606262e-02 -2.4400696158409119e-01</leafValues></_>
    <_>
      <internalNodes>
        0 -1 11483 4.1284006834030151e-01</internalNodes>
      <leafValues>
        1.3615208677947521e-02 -8.0362761020660400e-01</leafValues></_>
    <_>
      <internalNodes>
        0 -1 138770 4.4257612898945808e-03</internalNodes>
      <leafValues>
        -5.6900981813669205e-02 3.0741921067237854e-01</leafValues></_>
    <_>
      <internalNodes>
        0 -1 97619 -7.1592986583709717e-02</internalNodes>
      <leafValues>
        2.6409250497817993e-01 -6.3656836748123169e-02</leafValues></_>
    <_>
      <internalNodes>
        0 -1 25016 1.0884695220738649e-03</internalNodes>
      <leafValues>
        8.0482684075832367e-02 -2.3121780157089233e-01</leafValues></_>
    <_>
      <internalNodes>
        0 -1 154090 1.0489225132914726e-05</internalNodes>
      <leafValues>
        -1.1893667280673981e-01 1.3279223442077637e-01</leafValues></_>
    <_>
      <internalNodes>
        0 -1 34791 6.8993335589766502e-03</internalNodes>
      <leafValues>
        -1.5705342590808868e-01 9.5100216567516327e-02</leafValues></_>
    <_>
      <internalNodes>
        0 -1 286 9.2848688364028931e-03</internalNodes>
      <leafValues>
        -1.0790210217237473e-01 1.4740531146526337e-01</leafValues></_>
    <_>
      <internalNodes>
        0 -1 41622 -1.9054779782891273e-02</internalNodes>
      <leafValues>
        5.1918047666549683e-01 -2.8268644586205482e-02</leafValues></_>
    <_>
      <internalNodes>
        0 -1 1631 -1.2298560250201263e-05</internalNodes>
      <leafValues>
        -1.5004900097846985e-01 1.0978540033102036e-01</leafValues></_>
    <_>
      <internalNodes>
        0 -1 15372 -1.1099960829596967e-04</internalNodes>
      <leafValues>
        -1.9270358979701996e-01 7.5618118047714233e-02</leafValues></_>
    <_>
      <internalNodes>
        0 -1 161497 2.0081792026758194e-02</internalNodes>
      <leafValues>
        1.2551073916256428e-02 -8.5206466913223267e-01</leafValues></_>
    <_>
      <internalNodes>
        0 -1 13454 -4.9986247904598713e-03</internalNodes>
      <leafValues>
        2.3682479560375214e-01 -6.7358225584030151e-02</leafValues></_>
    <_>
      <internalNodes>
        0 -1 13372 2.3856431653257459e-05</internalNodes>
      <leafValues>
        -1.2254919111728668e-01 1.3512521982192993e-01</leafValues></_>
    <_>
      <internalNodes>
        0 -1 121241 -1.4871770981699228e-03</internalNodes>
      <leafValues>
        -3.8838264346122742e-01 4.3445948511362076e-02</leafValues></_>
    <_>
      <internalNodes>
        0 -1 78674 2.1029564086347818e-03</internalNodes>
      <leafValues>
        -7.2702601552009583e-02 2.1091026067733765e-01</leafValues></_>
    <_>
      <internalNodes>
        0 -1 127199 -1.6559509560465813e-02</internalNodes>
      <leafValues>
        1.5360490977764130e-01 -9.6147701144218445e-02</leafValues></_>
    <_>
      <internalNodes>
        0 -1 120960 3.5349447280168533e-03</internalNodes>
      <leafValues>
        -7.3677398264408112e-02 2.2350303828716278e-01</leafValues></_>
    <_>
      <internalNodes>
        0 -1 162189 9.2564360238611698e-04</internalNodes>
      <leafValues>
        4.3987423181533813e-02 -3.8712933659553528e-01</leafValues></_>
    <_>
      <internalNodes>
        0 -1 13301 1.3127229176461697e-03</internalNodes>
      <leafValues>
        3.0496688559651375e-02 -3.9979466795921326e-01</leafValues></_>
    <_>
      <internalNodes>
        0 -1 49397 2.4876197130652145e-05</internalNodes>
      <leafValues>
        -1.0781059414148331e-01 1.3145597279071808e-01</leafValues></_>
    <_>
      <internalNodes>
        0 -1 111950 3.2976293005049229e-03</internalNodes>
      <leafValues>
        -5.2269332110881805e-02 2.4337930977344513e-01</leafValues></_>
    <_>
      <internalNodes>
        0 -1 131806 -3.7143123336136341e-04</internalNodes>
      <leafValues>
        2.0237995684146881e-01 -7.1162231266498566e-02</leafValues></_>
    <_>
      <internalNodes>
        0 -1 13182 -1.5271917800419033e-04</internalNodes>
      <leafValues>
        -1.9812731444835663e-01 6.9294378161430359e-02</leafValues></_>
    <_>
      <internalNodes>
        0 -1 144026 -2.0533130737021565e-04</internalNodes>
      <leafValues>
        1.2821167707443237e-01 -1.0767503827810287e-01</leafValues></_>
    <_>
      <internalNodes>
        0 -1 162092 -6.0073775239288807e-04</internalNodes>
      <leafValues>
        -2.2326087951660156e-01 6.5359272062778473e-02</leafValues></_>
    <_>
      <internalNodes>
        0 -1 114266 -5.2285818383097649e-03</internalNodes>
      <leafValues>
        1.4558310806751251e-01 -9.4682842493057251e-02</leafValues></_>
    <_>
      <internalNodes>
        0 -1 1135 -1.2591518498084042e-05</internalNodes>
      <leafValues>
        9.7421079874038696e-02 -1.6595512628555298e-01</leafValues></_>
    <_>
      <internalNodes>
        0 -1 88445 4.9815230071544647e-02</internalNodes>
      <leafValues>
        -2.5548011064529419e-02 5.9391200542449951e-01</leafValues></_>
    <_>
      <internalNodes>
        0 -1 127468 8.6142751388251781e-04</internalNodes>
      <leafValues>
        -9.1726116836071014e-02 1.6702504456043243e-01</leafValues></_>
    <_>
      <internalNodes>
        0 -1 141086 1.3036942982580513e-04</internalNodes>
      <leafValues>
        -9.8839886486530304e-02 1.4750903844833374e-01</leafValues></_>
    <_>
      <internalNodes>
        0 -1 117640 -1.4537090063095093e-01</internalNodes>
      <leafValues>
        -6.6521120071411133e-01 2.2391911596059799e-02</leafValues></_>
    <_>
      <internalNodes>
        0 -1 120748 3.1155865872278810e-04</internalNodes>
      <leafValues>
        -8.4329217672348022e-02 1.7937546968460083e-01</leafValues></_>
    <_>
      <internalNodes>
        0 -1 149203 -1.4188189525157213e-03</internalNodes>
      <leafValues>
        1.5031905472278595e-01 -9.1576412320137024e-02</leafValues></_>
    <_>
      <internalNodes>
        0 -1 162040 9.6710342913866043e-03</internalNodes>
      <leafValues>
        3.2077513635158539e-02 -4.5980906486511230e-01</leafValues></_>
    <_>
      <internalNodes>
        0 -1 157395 -2.7964610606431961e-02</internalNodes>
      <leafValues>
        -4.8951369524002075e-01 2.4300293996930122e-02</leafValues></_>
    <_>
      <internalNodes>
        0 -1 147957 -1.5925550833344460e-03</internalNodes>
      <leafValues>
        2.0161473751068115e-01 -7.1323633193969727e-02</leafValues></_>
    <_>
      <internalNodes>
        0 -1 15368 1.2892462837044150e-04</internalNodes>
      <leafValues>
        8.1386163830757141e-02 -1.7983306944370270e-01</leafValues></_>
    <_>
      <internalNodes>
        0 -1 152416 -2.3813301595509984e-05</internalNodes>
      <leafValues>
        1.2945462763309479e-01 -1.0514786839485168e-01</leafValues></_>
    <_>
      <internalNodes>
        0 -1 111161 -3.7220925092697144e-02</internalNodes>
      <leafValues>
        -5.7535195350646973e-01 2.8517682105302811e-02</leafValues></_>
    <_>
      <internalNodes>
        0 -1 135940 3.7887510843575001e-03</internalNodes>
      <leafValues>
        -9.7576506435871124e-02 1.4480189979076385e-01</leafValues></_>
    <_>
      <internalNodes>
        0 -1 122415 -1.2573591084219515e-04</internalNodes>
      <leafValues>
        -1.8145935237407684e-01 7.5178116559982300e-02</leafValues></_>
    <_>
      <internalNodes>
        0 -1 141959 3.5575340734794736e-04</internalNodes>
      <leafValues>
        -1.1379843950271606e-01 1.2153483927249908e-01</leafValues></_>
    <_>
      <internalNodes>
        0 -1 3165 -3.6239996552467346e-02</internalNodes>
      <leafValues>
        -5.4057264328002930e-01 2.7801288291811943e-02</leafValues></_>
    <_>
      <internalNodes>
        0 -1 16330 4.1408971883356571e-03</internalNodes>
      <leafValues>
        -5.1427945494651794e-02 3.1469747424125671e-01</leafValues></_>
    <_>
      <internalNodes>
        0 -1 144004 -1.4882601681165397e-04</internalNodes>
      <leafValues>
        -2.1389620006084442e-01 7.1114778518676758e-02</leafValues></_>
    <_>
      <internalNodes>
        0 -1 143965 5.1914644427597523e-04</internalNodes>
      <leafValues>
        4.7691047191619873e-02 -2.9397174715995789e-01</leafValues></_>
    <_>
      <internalNodes>
        0 -1 37332 -2.9373932629823685e-02</internalNodes>
      <leafValues>
        1.5937457978725433e-01 -1.0639767348766327e-01</leafValues></_>
    <_>
      <internalNodes>
        0 -1 157590 -1.1006103704858106e-05</internalNodes>
      <leafValues>
        1.3250565528869629e-01 -1.2635226547718048e-01</leafValues></_>
    <_>
      <internalNodes>
        0 -1 137706 -2.5546986144036055e-03</internalNodes>
      <leafValues>
        2.2946228086948395e-01 -6.0114070773124695e-02</leafValues></_>
    <_>
      <internalNodes>
        0 -1 58206 4.0857564657926559e-02</internalNodes>
      <leafValues>
        -3.0673751607537270e-02 4.2450398206710815e-01</leafValues></_>
    <_>
      <internalNodes>
        0 -1 145035 2.5123626983258873e-05</internalNodes>
      <leafValues>
        -1.0513421893119812e-01 1.2626321613788605e-01</leafValues></_>
    <_>
      <internalNodes>
        0 -1 162140 3.5469913855195045e-03</internalNodes>
      <leafValues>
        3.4880854189395905e-02 -4.5362287759780884e-01</leafValues></_>
    <_>
      <internalNodes>
        0 -1 162289 -1.4177670236676931e-03</internalNodes>
      <leafValues>
        -3.6150169372558594e-01 3.4694876521825790e-02</leafValues></_>
    <_>
      <internalNodes>
        0 -1 158543 -2.9807293321937323e-03</internalNodes>
      <leafValues>
        3.1655621528625488e-01 -4.6726241707801819e-02</leafValues></_>
    <_>
      <internalNodes>
        0 -1 162335 -1.5132154803723097e-03</internalNodes>
      <leafValues>
        -5.9796959161758423e-01 2.1228620782494545e-02</leafValues></_>
    <_>
      <internalNodes>
        0 -1 12863 -5.2606882527470589e-03</internalNodes>
      <leafValues>
        1.4856444299221039e-01 -9.3685850501060486e-02</leafValues></_>
    <_>
      <internalNodes>
        0 -1 97608 -7.5144823640584946e-03</internalNodes>
      <leafValues>
        2.3653146624565125e-01 -5.5797252804040909e-02</leafValues></_>
    <_>
      <internalNodes>
        0 -1 134175 7.7509775757789612e-02</internalNodes>
      <leafValues>
        -5.8699790388345718e-02 2.3496510088443756e-01</leafValues></_>
    <_>
      <internalNodes>
        0 -1 162232 -8.2895380910485983e-04</internalNodes>
      <leafValues>
        -2.8001970052719116e-01 4.8760686069726944e-02</leafValues></_>
    <_>
      <internalNodes>
        0 -1 157783 1.0374744306318462e-05</internalNodes>
      <leafValues>
        -1.1103329807519913e-01 1.2297403812408447e-01</leafValues></_>
    <_>
      <internalNodes>
        0 -1 10026 1.0787758976221085e-02</internalNodes>
      <leafValues>
        4.4728361070156097e-02 -3.1925827264785767e-01</leafValues></_>
    <_>
      <internalNodes>
        0 -1 131976 -1.8935167463496327e-03</internalNodes>
      <leafValues>
        1.4665330946445465e-01 -9.4852350652217865e-02</leafValues></_>
    <_>
      <internalNodes>
        0 -1 147277 1.7200145870447159e-02</internalNodes>
      <leafValues>
        -4.0495704859495163e-02 3.3096298575401306e-01</leafValues></_>
    <_>
      <internalNodes>
        0 -1 113188 -3.5945908166468143e-03</internalNodes>
      <leafValues>
        1.2369243055582047e-01 -1.1184879392385483e-01</leafValues></_>
    <_>
      <internalNodes>
        0 -1 140370 -5.3347386419773102e-03</internalNodes>
      <leafValues>
        2.0584709942340851e-01 -6.4703978598117828e-02</leafValues></_>
    <_>
      <internalNodes>
        0 -1 55515 1.1171096004545689e-02</internalNodes>
      <leafValues>
        -5.1382325589656830e-02 2.4872538447380066e-01</leafValues></_>
    <_>
      <internalNodes>
        0 -1 120230 1.6804024577140808e-02</internalNodes>
      <leafValues>
        -4.8154812306165695e-02 2.5653725862503052e-01</leafValues></_>
    <_>
      <internalNodes>
        0 -1 133718 1.1528434697538614e-04</internalNodes>
      <leafValues>
        6.8911246955394745e-02 -1.9355466961860657e-01</leafValues></_>
    <_>
      <internalNodes>
        0 -1 11033 -2.4029053747653961e-03</internalNodes>
      <leafValues>
        -7.5864118337631226e-01 1.4073791913688183e-02</leafValues></_>
    <_>
      <internalNodes>
        0 -1 151167 2.2987840929999948e-04</internalNodes>
      <leafValues>
        -9.8085083067417145e-02 1.2179518491029739e-01</leafValues></_>
    <_>
      <internalNodes>
        0 -1 150841 -9.8707794677466154e-05</internalNodes>
      <leafValues>
        1.1986370384693146e-01 -1.0354698449373245e-01</leafValues></_>
    <_>
      <internalNodes>
        0 -1 90554 -7.9574456322006881e-05</internalNodes>
      <leafValues>
        -1.7979747056961060e-01 6.9386556744575500e-02</leafValues></_>
    <_>
      <internalNodes>
        0 -1 11175 -3.7203803658485413e-02</internalNodes>
      <leafValues>
        -6.2025249004364014e-01 1.6726223751902580e-02</leafValues></_>
    <_>
      <internalNodes>
        0 -1 59675 -7.1867513470351696e-03</internalNodes>
      <leafValues>
        1.1075528711080551e-01 -1.0942830145359039e-01</leafValues></_>
    <_>
      <internalNodes>
        0 -1 48736 -2.1520660084206611e-05</internalNodes>
      <leafValues>
        1.1791197955608368e-01 -1.0498914867639542e-01</leafValues></_>
    <_>
      <internalNodes>
        0 -1 79915 -4.3853418901562691e-03</internalNodes>
      <leafValues>
        3.3586311340332031e-01 -3.3185616135597229e-02</leafValues></_></weakClassifiers></stage9>
</opencv_storage>
