<?xml version="1.0"?>
<opencv_storage>
<stage4>
  <maxWeakCount>19</maxWeakCount>
  <stageThreshold>-1.2662093639373779e+00</stageThreshold>
  <weakClassifiers>
    <_>
      <internalNodes>
        0 -1 70529 4.3907336890697479e-02</internalNodes>
      <leafValues>
        -4.9673810601234436e-01 2.8155338764190674e-01</leafValues></_>
    <_>
      <internalNodes>
        0 -1 160817 -2.0978601649403572e-02</internalNodes>
      <leafValues>
        -4.7477906942367554e-01 9.5876261591911316e-02</leafValues></_>
    <_>
      <internalNodes>
        0 -1 98640 -3.1887763179838657e-04</internalNodes>
      <leafValues>
        -4.7914999723434448e-01 1.2716926634311676e-01</leafValues></_>
    <_>
      <internalNodes>
        0 -1 98594 1.9389911903999746e-04</internalNodes>
      <leafValues>
        1.9732441008090973e-01 -3.3777469396591187e-01</leafValues></_>
    <_>
      <internalNodes>
        0 -1 161331 -1.9211869221180677e-04</internalNodes>
      <leafValues>
        -3.1284272670745850e-01 1.6305585205554962e-01</leafValues></_>
    <_>
      <internalNodes>
        0 -1 11094 -1.3615669682621956e-02</internalNodes>
      <leafValues>
        4.8587298393249512e-01 -1.0572517663240433e-01</leafValues></_>
    <_>
      <internalNodes>
        0 -1 49459 -1.9505286763887852e-04</internalNodes>
      <leafValues>
        -4.5632880926132202e-01 1.2272994220256805e-01</leafValues></_>
    <_>
      <internalNodes>
        0 -1 126325 -6.4533233642578125e-02</internalNodes>
      <leafValues>
        3.4996718168258667e-01 -1.5945675969123840e-01</leafValues></_>
    <_>
      <internalNodes>
        0 -1 79678 4.3977894820272923e-03</internalNodes>
      <leafValues>
        -8.6393512785434723e-02 5.9405887126922607e-01</leafValues></_>
    <_>
      <internalNodes>
        0 -1 159920 4.1698715649545193e-03</internalNodes>
      <leafValues>
        -1.4352920651435852e-01 3.8446128368377686e-01</leafValues></_>
    <_>
      <internalNodes>
        0 -1 144196 3.3776249620132148e-04</internalNodes>
      <leafValues>
        1.5406785905361176e-01 -4.0123942494392395e-01</leafValues></_>
    <_>
      <internalNodes>
        0 -1 142488 1.8246989930048585e-03</internalNodes>
      <leafValues>
        -1.7540873587131500e-01 2.7819159626960754e-01</leafValues></_>
    <_>
      <internalNodes>
        0 -1 121300 1.6498864861205220e-03</internalNodes>
      <leafValues>
        7.0907309651374817e-02 -7.3718380928039551e-01</leafValues></_>
    <_>
      <internalNodes>
        0 -1 75135 9.5361704006791115e-03</internalNodes>
      <leafValues>
        -1.0723637044429779e-01 6.1211091279983521e-01</leafValues></_>
    <_>
      <internalNodes>
        0 -1 161381 1.3109972933307290e-03</internalNodes>
      <leafValues>
        1.0302323102951050e-01 -4.8470544815063477e-01</leafValues></_>
    <_>
      <internalNodes>
        0 -1 113926 3.3349654404446483e-04</internalNodes>
      <leafValues>
        -1.4793287217617035e-01 3.6115905642509460e-01</leafValues></_>
    <_>
      <internalNodes>
        0 -1 0 -6.5635751525405794e-05</internalNodes>
      <leafValues>
        -3.3524140715599060e-01 1.5504132211208344e-01</leafValues></_>
    <_>
      <internalNodes>
        0 -1 161182 -5.4508558241650462e-04</internalNodes>
      <leafValues>
        -6.5137916803359985e-01 7.1875549852848053e-02</leafValues></_>
    <_>
      <internalNodes>
        0 -1 1217 4.9461983144283295e-03</internalNodes>
      <leafValues>
        -1.6314521431922913e-01 3.2198256254196167e-01</leafValues></_></weakClassifiers></stage4>
</opencv_storage>
