<?xml version="1.0"?>
<opencv_storage>
<stage8>
  <maxWeakCount>26</maxWeakCount>
  <stageThreshold>-1.1219382286071777e+00</stageThreshold>
  <weakClassifiers>
    <_>
      <internalNodes>
        0 -1 11998 -1.4675715938210487e-02</internalNodes>
      <leafValues>
        -1.8229167163372040e-01 -5.4797977209091187e-01</leafValues></_>
    <_>
      <internalNodes>
        0 -1 5832 2.7198142561246641e-05</internalNodes>
      <leafValues>
        -2.3888573050498962e-01 1.5617345273494720e-01</leafValues></_>
    <_>
      <internalNodes>
        0 -1 13321 -1.3227853924036026e-03</internalNodes>
      <leafValues>
        -3.7893605232238770e-01 1.0908102244138718e-01</leafValues></_>
    <_>
      <internalNodes>
        0 -1 9438 -9.2510058311745524e-04</internalNodes>
      <leafValues>
        3.7025099992752075e-01 -8.2492113113403320e-02</leafValues></_>
    <_>
      <internalNodes>
        0 -1 111953 1.1696230620145798e-02</internalNodes>
      <leafValues>
        -9.2206925153732300e-02 3.4808304905891418e-01</leafValues></_>
    <_>
      <internalNodes>
        0 -1 151879 -6.4587552333250642e-04</internalNodes>
      <leafValues>
        -7.3878127336502075e-01 3.7728704512119293e-02</leafValues></_>
    <_>
      <internalNodes>
        0 -1 102040 -7.4546243995428085e-03</internalNodes>
      <leafValues>
        4.1519203782081604e-01 -8.8489390909671783e-02</leafValues></_>
    <_>
      <internalNodes>
        0 -1 109699 8.7223690934479237e-04</internalNodes>
      <leafValues>
        -1.4696463942527771e-01 2.7371326088905334e-01</leafValues></_>
    <_>
      <internalNodes>
        0 -1 80746 2.8572243172675371e-04</internalNodes>
      <leafValues>
        1.1013904958963394e-01 -3.9494046568870544e-01</leafValues></_>
    <_>
      <internalNodes>
        0 -1 155211 -2.6635816539055668e-05</internalNodes>
      <leafValues>
        2.1184258162975311e-01 -2.0788393914699554e-01</leafValues></_>
    <_>
      <internalNodes>
        0 -1 80746 -2.8035597642883658e-04</internalNodes>
      <leafValues>
        -4.1346374154090881e-01 9.5025420188903809e-02</leafValues></_>
    <_>
      <internalNodes>
        0 -1 133393 -8.2360894884914160e-04</internalNodes>
      <leafValues>
        5.2149718999862671e-01 -8.9658722281455994e-02</leafValues></_>
    <_>
      <internalNodes>
        0 -1 46038 -3.8086068816483021e-03</internalNodes>
      <leafValues>
        2.8268030285835266e-01 -1.4810883998870850e-01</leafValues></_>
    <_>
      <internalNodes>
        0 -1 9415 3.2994789071381092e-03</internalNodes>
      <leafValues>
        -1.8789170682430267e-01 2.4293103814125061e-01</leafValues></_>
    <_>
      <internalNodes>
        0 -1 2494 5.6394152343273163e-03</internalNodes>
      <leafValues>
        5.4639592766761780e-02 -7.0680069923400879e-01</leafValues></_>
    <_>
      <internalNodes>
        0 -1 26816 -3.0841017141938210e-03</internalNodes>
      <leafValues>
        -4.9260336160659790e-01 8.1233218312263489e-02</leafValues></_>
    <_>
      <internalNodes>
        0 -1 8176 3.6934092640876770e-03</internalNodes>
      <leafValues>
        -1.2900085747241974e-01 3.4195360541343689e-01</leafValues></_>
    <_>
      <internalNodes>
        0 -1 2476 3.6943178623914719e-02</internalNodes>
      <leafValues>
        -1.5127167105674744e-01 2.9450464248657227e-01</leafValues></_>
    <_>
      <internalNodes>
        0 -1 3458 -3.9898850023746490e-02</internalNodes>
      <leafValues>
        3.1845936179161072e-01 -1.4191637933254242e-01</leafValues></_>
    <_>
      <internalNodes>
        0 -1 69586 4.2916182428598404e-03</internalNodes>
      <leafValues>
        -6.1558686196804047e-02 6.1405354738235474e-01</leafValues></_>
    <_>
      <internalNodes>
        0 -1 155228 -4.7034496674314141e-04</internalNodes>
      <leafValues>
        -4.9040174484252930e-01 8.7787404656410217e-02</leafValues></_>
    <_>
      <internalNodes>
        0 -1 89539 1.4281471259891987e-02</internalNodes>
      <leafValues>
        -8.8511101901531219e-02 5.1393562555313110e-01</leafValues></_>
    <_>
      <internalNodes>
        0 -1 50460 -3.4439182491041720e-04</internalNodes>
      <leafValues>
        -2.8852269053459167e-01 1.4169825613498688e-01</leafValues></_>
    <_>
      <internalNodes>
        0 -1 138810 2.0072613842785358e-03</internalNodes>
      <leafValues>
        -1.1462923884391785e-01 4.0215009450912476e-01</leafValues></_>
    <_>
      <internalNodes>
        0 -1 119144 -2.1755836904048920e-02</internalNodes>
      <leafValues>
        3.0413475632667542e-01 -1.3816945254802704e-01</leafValues></_>
    <_>
      <internalNodes>
        0 -1 12805 1.0291363578289747e-03</internalNodes>
      <leafValues>
        7.3543474078178406e-02 -5.3257685899734497e-01</leafValues></_></weakClassifiers></stage8>
</opencv_storage>
